{
    "0": {
        "biases": [
            [
                0.11704487163725756,
                0.06336272453382864,
                0.056001094248333806,
                -0.033654203843268865,
                0.02577614446212538,
                -0.012514736193076043,
                0.33986063888730833,
                0.02841505008666332,
                0.0444854763983252,
                0.04146631324096055,
                -0.005439537482289091,
                0.022861973487188537,
                0.15173546540822763,
                0.09538587253865002,
                0.06504590293283849,
                0.04196725948527316
            ]
        ],
        "weights": [
            [
                -0.4274110551700566,
                0.8232039015465209,
                0.23689473642280712,
                0.37829921073226846,
                -0.5036900700199157,
                -0.05746395783395076,
                -0.6756928762584601,
                0.07021473215908038,
                0.16380287947487834,
                -0.7291738565741875,
                -0.004717284044920902,
                -0.15793412088074268,
                -0.35393582772848103,
                0.34975573692024986,
                -0.09271251905516732,
                -0.04282319768067978
            ],
            [
                -0.36236071824374744,
                0.03192148453931472,
                -0.4656627499958234,
                -0.11403208495652457,
                0.15946975475094505,
                0.08315307574850711,
                0.32178872973371686,
                0.1301757944436413,
                -0.3359698238929816,
                0.10173379966701995,
                0.002889365388860673,
                0.3118535175223621,
                -0.3708912411519986,
                -0.7068517620418132,
                0.9795162769897703,
                0.6734776472694741
            ]
        ]
    },
    "1": {
        "biases": [
            [
                -0.03187080097488795,
                0.029436495403130696,
                -0.03562917215777405,
                -0.08019219721130827,
                -0.015036469994415144,
                0.04411527579413327,
                0.835091489095093,
                0.25910064981773545
            ]
        ],
        "weights": [
            [
                0.042212586137195945,
                -0.10268096488374803,
                -0.018123193225950802,
                -0.2299940081019898,
                0.46201155646520103,
                0.1401662918002892,
                0.43211035658200825,
                0.07834160835733328
            ],
            [
                0.20223465725196127,
                -0.06937153772564399,
                0.10847549564048149,
                -0.10919922171986055,
                -0.6564237031904105,
                0.08387697391454332,
                0.23008870913046062,
                0.18674325462692704
            ],
            [
                0.2382504374974069,
                -0.14294191458190633,
                -0.0055721659399780065,
                0.08713982265137574,
                -0.07647588961586407,
                0.12563173005300748,
                0.22577618728746726,
                0.20613957331430927
            ],
            [
                -0.11725847190993377,
                -0.14565014726402956,
                0.015555313235660525,
                0.09523687153509706,
                -0.03363690930077428,
                -0.0015496428633048744,
                -0.1906349546487134,
                -0.23323731838464415
            ],
            [
                -0.12285445617144838,
                -0.014822774166203067,
                -0.21698659860530214,
                0.08911974420399417,
                -0.09465447690551118,
                -0.04675854468608088,
                -0.29778037011209113,
                -0.2218261722727831
            ],
            [
                0.07881844245317704,
                0.10220515110717607,
                -0.0986642679357871,
                -0.13447226138692994,
                0.015006280676735788,
                0.062230735621055355,
                0.01508710902295302,
                0.14109510233862416
            ],
            [
                0.23346436447396163,
                0.24031831261091416,
                0.12145674652500607,
                -0.1162409652110008,
                0.4025224408781881,
                -0.2711656231689588,
                0.3850834778142058,
                0.5048147025869708
            ],
            [
                -0.09337085773807487,
                0.016875737462718032,
                0.23860801323364297,
                0.04258029241852203,
                0.04618639492136103,
                0.17248218904685178,
                -0.04459714511513352,
                -0.07534161124402049
            ],
            [
                0.16006296115512697,
                0.019989155716500534,
                0.10851815933868274,
                -0.14948838328435418,
                -0.009092994603951141,
                0.11208812532663864,
                0.18514527856534593,
                0.1029563523304345
            ],
            [
                -0.32082122466999957,
                -0.08339317248640514,
                -0.18607858395708535,
                -0.10884268574983313,
                0.022527207197376227,
                -0.12945503227837127,
                -0.3754002186847876,
                -0.31645484669676355
            ],
            [
                0.09286160609111198,
                -0.08259268147604527,
                0.08142996890256961,
                0.04122219848598941,
                -0.06600364272724653,
                -0.11061424747139174,
                0.009466177467773762,
                -0.003964171667406379
            ],
            [
                -0.06740464366899854,
                -0.09621450500562732,
                -0.07830015990932238,
                0.05404082546233664,
                -0.1719220227483563,
                -0.07377820410906613,
                -0.2405551693546826,
                -0.02592259056052717
            ],
            [
                0.13063315966525693,
                -0.14262127314967932,
                0.12763345234748882,
                0.06648614016619693,
                0.4911003395924878,
                0.2901679821243245,
                0.1344310416000066,
                0.12103104340208745
            ],
            [
                0.25072407639906136,
                0.08249808590343213,
                0.2629262677485148,
                -0.0968728329731523,
                -0.022564272554657226,
                0.24656481109632744,
                0.2533681637140922,
                0.4951322262306476
            ],
            [
                -0.12055766638865201,
                -0.3568676808459532,
                -0.05275463286436659,
                -0.020627769803208237,
                -0.46626245160307517,
                0.1500511772406901,
                -0.5720354946979264,
                -0.20294255304462208
            ],
            [
                -0.11703943723322474,
                -0.06581393268923419,
                0.1303998929606981,
                0.16793492116156244,
                -0.3434792422288473,
                0.06468476096560932,
                -0.33316263675317925,
                -0.33075535470655903
            ]
        ]
    },
    "2": {
        "biases": [
            [
                -0.0021343075927896505,
                -0.003712220520937421,
                0.6852400455310588,
                0.5510306205458833,
                -0.03837816733113002,
                -0.12034723843747713,
                0.2299022998494008,
                -0.03991634923835476,
                0.03592743948181807,
                -0.005816897284374598,
                0.005030759229489061,
                -0.18090970220060523,
                -0.0021377862028557956,
                0.006328713915833672,
                0.36529801581417287,
                0.32369828082307744
            ]
        ],
        "weights": [
            [
                -0.09437651524810405,
                0.015042349470225237,
                -0.2165348302721262,
                0.05777742997632201,
                0.046591120533905274,
                -0.05844221870917769,
                -0.00843151299452833,
                -0.09792913274022551,
                0.3054866649714206,
                0.008459610635783184,
                0.14350965685889594,
                -0.08119487134676774,
                0.0020001473383214636,
                0.22148264023755213,
                0.1425598650538135,
                0.2461538547853709
            ],
            [
                -0.17326653797708694,
                0.030821826220830278,
                -0.07031058735812444,
                -0.08507717828981516,
                0.07766505739138968,
                -0.010486519926279967,
                0.06789589741550271,
                0.020694727747153353,
                0.11120697873449947,
                0.08837426019421055,
                -0.05998788839241104,
                0.19885948701859738,
                0.05056249047549131,
                -0.05216587963702039,
                -0.32633907212340446,
                -0.012135837373563507
            ],
            [
                -0.030851958788438938,
                -0.08288498167520761,
                -0.07991261044914526,
                -0.12449161798810113,
                -0.022082301894302814,
                0.06048906817905924,
                -0.010341641154689635,
                -0.014372070024394818,
                0.1496449366730692,
                0.053034854037500724,
                0.03815565362200243,
                -0.24280867124379135,
                0.04730157370235225,
                0.13713012108717423,
                0.13033105396292657,
                -0.03961358737587958
            ],
            [
                0.07101515509408836,
                -0.048152305884441,
                -0.04427698887524718,
                -0.1954348284049337,
                0.14603072141151735,
                -0.008962666151178335,
                0.11857099911337748,
                -0.010813308579159981,
                0.07215229828301249,
                -0.0023363770893862564,
                -0.10182834516584832,
                -0.03987559751242528,
                0.09243631994445067,
                -0.02423154164250004,
                0.05149476001758068,
                0.09106717862868575
            ],
            [
                -0.11139620471304154,
                0.017880236299337632,
                0.30600304879167756,
                0.21418227866788497,
                -0.05161958589586999,
                -0.02279293935512667,
                -0.06778046841024656,
                0.24900117062091634,
                0.06601896965140275,
                0.0025964430719982693,
                -0.2240972899545404,
                0.36283371171385365,
                -0.01559497077809685,
                -0.5508334323447274,
                -0.43119858518488197,
                -0.42326690573961073
            ],
            [
                0.02084799453810483,
                -0.07789926920302757,
                0.11327043164483198,
                0.24204296354229932,
                0.09339977083156734,
                0.11444889891087172,
                0.20863549668299003,
                0.08301644799055566,
                -0.024384013466882376,
                -0.03070427130951809,
                0.03191790767057786,
                -0.12676120122691698,
                -0.0833988071033865,
                0.07066915908071504,
                0.12657508550188892,
                0.2648596029875054
            ],
            [
                -0.10327093695143343,
                -0.12476682949595816,
                -0.44865961284294187,
                -0.3931762928362548,
                -0.053715776696718086,
                -0.008836112551860897,
                -0.5474530019603776,
                -0.0931608000003051,
                0.5479248949979993,
                -0.2706265522847888,
                0.1790745364067056,
                0.18349564852002304,
                -0.1967852995176298,
                0.20783134424593877,
                -0.07552391863099897,
                -0.10456703843294532
            ],
            [
                -0.11314375459864434,
                -0.095430094440215,
                -0.013548592388293916,
                -0.14904669033542256,
                0.04727202906380418,
                0.08452418200800617,
                -0.23986485189239096,
                -0.001472685231040873,
                0.43768800841702427,
                0.11010633239479901,
                0.10252663791446864,
                0.05723322909077705,
                0.056927017910066845,
                0.4975181837061817,
                0.1758728797751182,
                0.2824467300913631
            ]
        ]
    },
    "3": {
        "biases": [
            [
                -0.3562909488549019,
                0.21047207902456597,
                0.14581886983033615
            ]
        ],
        "weights": [
            [
                0.24859911952380798,
                -0.023017688952114822,
                0.0869706335062901
            ],
            [
                0.18609077830247786,
                0.054400214170958396,
                -0.008436811707509843
            ],
            [
                -0.3627366499917322,
                0.22896170238433536,
                -0.15336026675202086
            ],
            [
                -0.14203295520360593,
                0.26564086964035966,
                -0.13765614848720628
            ],
            [
                -0.127442637805492,
                0.04907743059239505,
                -0.004885739047202743
            ],
            [
                -0.18525831928826939,
                -0.061598196398557487,
                -0.08468886333618116
            ],
            [
                -0.14949098665530625,
                0.6577676638543716,
                -0.08547537480833006
            ],
            [
                -0.07604480023324048,
                -0.10331219454375762,
                0.15353543231822706
            ],
            [
                0.09857172435440656,
                -0.4149816738596954,
                0.4938380982222584
            ],
            [
                0.080747965844201,
                0.041492057649292806,
                0.0670864093876413
            ],
            [
                0.14359436785828883,
                -0.14138354481943435,
                0.0018694334746251623
            ],
            [
                -0.3162919385182041,
                0.09494560452920288,
                0.3077172521775204
            ],
            [
                0.09592442119229014,
                -0.09668193058753786,
                0.018720549161484672
            ],
            [
                0.3696602555005729,
                -0.3295748177171063,
                -0.1384142933757682
            ],
            [
                0.4633597728591377,
                0.0634752698819428,
                -0.44687494736055927
            ],
            [
                0.39919887476938803,
                -0.049995769831865086,
                -0.4896343601857932
            ]
        ]
    }
}