{
    "0": {
        "biases": [
            [
                -0.2533854176333816,
                -2.6413901706194887,
                -1.9221545664222384,
                -0.842505662384271,
                0.66324346747618,
                -1.7321952712994861,
                -0.2051790960731442,
                -0.41717434284461063,
                -0.6489993286883862,
                -2.0008836768013483,
                -0.005439537482289093,
                -0.3184486133136691,
                -1.3252092716914559,
                -1.8057807035862417,
                -2.1413959555594637,
                -1.7965100542222225
            ]
        ],
        "weights": [
            [
                -0.24258855692899844,
                6.379094128000815,
                3.53604186437829,
                4.330545057869053,
                -5.412508534887592,
                -2.849163123280633,
                -1.2619622968515236,
                0.25136977794063153,
                2.4014618655603606,
                -7.274632484082726,
                -0.0047172840449209,
                -1.6045277658220907,
                -2.118167974023418,
                0.4011297201531106,
                -0.1279853401346459,
                2.5940209414444304
            ],
            [
                -4.135604737523024,
                0.7074803700539976,
                -4.721228165098132,
                1.9312595854232781,
                -0.953824270789626,
                1.7317578935639049,
                -2.074681179308642,
                0.3355371620083036,
                -1.1219320824410162,
                0.1505344659807202,
                0.0028893653888606746,
                4.316037556997542,
                -5.1884800096473365,
                -4.921405813286837,
                6.710967345273592,
                4.498370160925441
            ]
        ]
    },
    "1": {
        "biases": [
            [
                1.1813527125568337,
                2.756385714737841,
                0.21120260692640622,
                -3.5319036956124434,
                -2.118552946670623,
                -9.000242605464036,
                5.267899250763528,
                2.7457376626013583
            ]
        ],
        "weights": [
            [
                1.2592644839629816,
                0.7695988741714482,
                -0.22512436838989616,
                -0.45331009371268577,
                1.2332934022472928,
                0.3176990708339726,
                -1.8965772569133754,
                -1.2014051632119727
            ],
            [
                0.38383751758820867,
                -0.31809389276163835,
                1.2285298246898944,
                1.555628094852826,
                -1.1630826255932527,
                1.2316509751224283,
                -1.846442153236087,
                -1.7965103722567795
            ],
            [
                -1.4291778281201073,
                -3.9819860722413765,
                -0.23953464577291275,
                -0.26044368505310606,
                0.11542709539290874,
                1.5927317435923651,
                0.5860348393310914,
                -0.550401412797745
            ],
            [
                -1.1749288348886715,
                -3.6408142199697715,
                -0.20941236917456493,
                0.5237319426932472,
                -0.4918176194341952,
                2.444920692132325,
                0.21979498648845194,
                -0.4874989467910804
            ],
            [
                -2.5150913035456623,
                -2.3420168972596085,
                -1.1114718295730697,
                0.6896495527135267,
                -0.3600023899018858,
                -0.28722199201207615,
                -0.8197251917243983,
                -1.0782757258752744
            ],
            [
                0.07873220545502603,
                0.10179992973944099,
                -0.08368987052011369,
                0.1616752190428251,
                2.2949516137777253,
                1.80848860716151,
                -0.5841278760541102,
                0.11381909534199429
            ],
            [
                0.9257896788053852,
                0.9941202879864381,
                0.2662470453295079,
                -0.34498558354839204,
                0.6416655922654958,
                0.3449415929155649,
                -0.4041021253670333,
                -1.154626466962853
            ],
            [
                -0.1169499944863743,
                -0.024491119930891616,
                0.3078552045315297,
                0.053803988007214,
                0.07176112198445152,
                0.28331172109217684,
                -0.12177451995822731,
                -0.05829858232128206
            ],
            [
                -0.4334626861414303,
                -1.8423789435573514,
                -0.31695264916881544,
                -0.02156952677572917,
                0.2805676026723102,
                1.4095971203797577,
                0.19144136643946297,
                0.6206969841766273
            ],
            [
                -0.6336242727688499,
                1.0747172489397812,
                -0.6061750799679096,
                -0.3040836382628193,
                1.6662644286229658,
                2.2147127476989668,
                -1.7438805348782727,
                -2.087154464845465
            ],
            [
                0.09286160609111198,
                -0.08259268147604527,
                0.08142996890256961,
                0.04122219848598941,
                -0.06600364272724653,
                -0.11061424747139174,
                0.009466177467773762,
                -0.003964171667406379
            ],
            [
                -0.9264023260763504,
                -3.398931001190054,
                -0.42595400389978905,
                0.3907366051074722,
                0.1153817347690049,
                -0.1364003703348459,
                -0.7477101435731259,
                -0.42058975494007256
            ],
            [
                0.6868249530680456,
                0.5526177892905549,
                0.14752399162419397,
                0.060780428720533484,
                0.6593594120690461,
                1.699395580153742,
                -2.637178842959658,
                2.5530321077075686
            ],
            [
                -0.6963948797509194,
                -2.4374364362854513,
                -0.3929461761142275,
                -0.2321115795957232,
                -0.023535138715583978,
                2.153881605989984,
                0.009956651606079094,
                0.07231041724642015
            ],
            [
                -0.546923168518042,
                -0.68888587284623,
                0.40078567315591207,
                1.4256689570096488,
                0.8049911299717856,
                1.1068841869703934,
                -1.2413247068720146,
                -2.6090957688716996
            ],
            [
                -0.46303471023751164,
                -0.4911639714145256,
                0.8563772809001662,
                1.2218638031409863,
                0.16626669649629272,
                -0.6026256396524382,
                -0.40633693046547004,
                -2.707522234453747
            ]
        ]
    },
    "2": {
        "biases": [
            [
                -0.06016260350578915,
                0.0796210421020336,
                0.2868507219672367,
                2.989665484268668,
                -0.9748690906226117,
                -0.6663816587682854,
                0.4183392313428064,
                -1.7276259139268626,
                -2.0365129307373078,
                -0.17782746100808616,
                -0.004774490485837179,
                -0.2790013334037809,
                -1.7817537466603368,
                -1.1662306022448146,
                3.905519167891548,
                -0.4560153028774465
            ]
        ],
        "weights": [
            [
                -0.09437651524810405,
                0.018757612460165714,
                -1.5933111780602816,
                -0.6606110927489919,
                -0.05283284894104379,
                -0.09093135725620978,
                -0.17793565349003837,
                -0.29285267574927765,
                -0.06673386408225118,
                1.4124748215150211,
                0.12650197290238535,
                1.2500452969987572,
                -0.40450152255855965,
                1.6775840348652478,
                0.8834607940726968,
                -0.276410869905818
            ],
            [
                -0.17326653797708694,
                0.03931044994298958,
                -1.7418972409411835,
                1.1446827231550216,
                0.08099840523021154,
                -0.010486348790874489,
                0.36254291364440644,
                0.006641809664813387,
                1.2746794164588948,
                -4.851316627210327,
                0.050260450168801374,
                0.22598019529435193,
                -0.11605848279828972,
                1.9906938624755894,
                0.8388268756013495,
                -0.34949983424959324
            ],
            [
                -0.03591470625752024,
                -0.08288835251336144,
                -0.818587247367818,
                0.11450624052025264,
                -0.07948149146753337,
                -0.003547207610940121,
                0.2172963433516737,
                0.17366403345646514,
                0.8318698486316417,
                -0.8671545603154429,
                0.5111857710691367,
                -0.4022716563097578,
                -0.09596582135414117,
                0.7060838190223474,
                -1.1240549690306867,
                -0.7575465259433453
            ],
            [
                0.008777409530074219,
                -0.0454927405152814,
                -0.37254814229749195,
                -0.48270261135250087,
                0.5023710581832614,
                0.26160050368998516,
                0.6873676059833743,
                0.9192979052435098,
                -0.020037374277270148,
                -1.3606410124724504,
                0.9824533160151996,
                0.28745727074514155,
                -0.1919009782939499,
                -0.4678117129630563,
                0.0016372568825665003,
                -0.8906565360494321
            ],
            [
                -0.11135918154003002,
                -0.009015407229576295,
                -0.4680825181868516,
                -1.630666940034302,
                -0.18769210209496054,
                -0.3133519774769254,
                -1.3299621724289419,
                0.06535261099997805,
                -0.8957984633395756,
                -0.7500620774372658,
                -1.32810491966709,
                1.2364693344718294,
                0.10312463483483875,
                -2.4039634509444707,
                -0.0760470138562101,
                0.048142121893841386
            ],
            [
                0.0009497744621874904,
                -0.07914276733183827,
                -0.7207626703825264,
                -0.2770536063576211,
                0.29306769238563146,
                0.24979466176986442,
                0.570518951112463,
                -0.2610233887408072,
                1.3740622914692904,
                -1.0275004891402855,
                0.6952851136533693,
                -1.7449294374114275,
                -0.08432702123231531,
                -0.10698043244084944,
                -2.398937721351073,
                0.4409549381279108
            ],
            [
                -0.10349200206607123,
                -0.13172218854600606,
                0.5469452399541601,
                -0.05344043293969649,
                -0.6534012887013425,
                -0.30337775027742664,
                -3.3546250121188095,
                -1.1272027403858635,
                -0.8030060906460924,
                1.0180102129948627,
                -0.3605720476984567,
                -1.436846075518957,
                -0.3884926654403347,
                -1.1168165232346416,
                -1.559516525895844,
                -0.5783154990267636
            ],
            [
                -0.11314568276020902,
                -0.08987456760195321,
                -0.3290158283988795,
                -2.418965717422404,
                -0.3877512039518928,
                -0.07943422682284496,
                -1.7473302665514587,
                -1.108434490021334,
                -0.7256178858250907,
                1.7003283470495305,
                -1.0320294475866092,
                1.4725600923534725,
                -0.5676129902131356,
                0.9386995389101124,
                -0.5369682644954081,
                0.255740043462312
            ]
        ]
    },
    "3": {
        "biases": [
            [
                0.2871564427685897,
                -0.8645955096776383,
                0.5774390669090258
            ]
        ],
        "weights": [
            [
                0.2448755017120777,
                -0.02159262239733761,
                0.08926918476324358
            ],
            [
                0.19923230985900153,
                0.062153254073731505,
                -0.029331383166806044
            ],
            [
                -0.8337532711194083,
                0.33626986481594934,
                0.21034819194404403
            ],
            [
                0.7332543360736553,
                -2.259385370976939,
                1.512082800852839
            ],
            [
                -0.5596820213687862,
                0.2860015170782104,
                0.19042955803027767
            ],
            [
                -0.4295253527901504,
                0.32330304975113633,
                -0.22532307598399373
            ],
            [
                0.26544783672451855,
                0.9131701760257975,
                -0.755816710359586
            ],
            [
                -1.0263365109723823,
                0.13291167127880985,
                0.867603277234804
            ],
            [
                -0.04253968691792173,
                0.7508759319659061,
                -0.5309080963310127
            ],
            [
                -0.21721506997804366,
                0.8514684135673947,
                -0.4449269107082149
            ],
            [
                0.7903678578104407,
                -0.2725332900272431,
                -0.5137543112697196
            ],
            [
                -0.6884468706713797,
                0.23701621445756396,
                0.5378015744023279
            ],
            [
                0.22688427240029835,
                -0.761181160462008,
                0.5522599278279485
            ],
            [
                0.724881585531429,
                -1.1398454652020087,
                0.3166350240782822
            ],
            [
                0.23151189647503714,
                1.0335720296307593,
                -1.1851238307252736
            ],
            [
                0.7231419341189963,
                -1.501689362052164,
                0.6381161726849003
            ]
        ]
    }
}